{"layers": [5, 10, 25, 10, 1], "weights": [[[0.08039579477863304, 0.17675441669743663, -0.0034860715421240578, 0.3543862860743549, 0.4232052294678607], [0.025821594146396662, -0.7402209412881269, 0.24887601382576557, -0.15872873240085392, 0.2390215543320754], [0.8438049233641216, -0.12381889843318561, 0.6539054624422068, -0.45292514368262365, -1.3019497479690618], [0.7173042385724833, 0.2209093100711635, -1.267544007787022, -0.6290987373814895, -0.10305340423134844], [0.16889160794041536, -0.2523791980245148, -0.7930748892965512, 0.609585575998667, 0.7705436164806596], [-0.3177114116934499, -0.5823324331964604, -0.20783720045183493, 0.1995730095596888, -0.7280824965364536], [-0.806756809127387, 0.25807726019433463, -0.6692978928217467, 0.48567829798842677, -0.6191041919412322], [-0.5438986335178426, 0.15191148656329612, 0.3443923404288456, -0.4387405366986307, -0.6028420997625725], [-0.1827027900430151, 0.022505027090060803, 0.3239858199656077, -0.3042856302077146, -0.5425384849873991], [-0.717098516705609, -0.5642048348115438, 0.40412854833875383, -0.2792958613658453, -0.7624345655798938]], [[-0.661487596500282, 1.0615414559303518, 0.7419796397698888, -0.8347225945999912, -0.0534514983179864, 0.16974457045220948, 0.42550096857060954, 0.7057849272553351, -0.4565036238361493, -0.3818916752213282], [-0.29767616875051905, -0.18367421041195048, -0.17942495912489095, -0.06858460942344209, 0.5069772233902853, 0.27061323115403557, 0.5354941731625925, 0.625454193968816, -0.7422880927679665, 0.7850194588000085], [0.10261085838489509, 0.33579256014659464, -0.39173341128380085, -0.053469975928584865, 0.35520320275232103, -0.31350648049592067, -0.41119090636995526, 0.8005488697255068, 0.48299718979418693, -0.5719182116620227], [-0.11909852128446399, -0.5555730985968079, -0.0262825846480383, -0.33334609105670776, 0.20483564239066296, -0.307710301376827, 0.48202011583647636, 0.9102489716657679, -1.0128414499313598, -0.13339843275252522], [0.5962138044052777, 0.7621927124750292, -0.14991852641959277, -0.13523595560924065, -0.5558800656275291, -0.30118563500715956, 0.0494152350347814, -0.0808257712354079, -1.1062657276275736, 0.6333278660029794], [0.13300196762697777, -0.3944464823313866, 0.4525583458430267, -0.07862612480671144, 0.5306075189924244, -0.021292003827478704, -0.9688402013389732, 0.8855242593353578, -0.06897289999273476, 0.4422286542678023], [0.02520630223078379, 0.6596116127975422, 0.44253521978344224, -0.06547564587507924, -0.097257731861289, 0.16857817374254527, 0.07138821867385392, -0.7163750462355631, -0.3266316327127226, 0.5474645713373696], [-0.2957403645259252, 0.27955991161059324, 0.0675249260262537, -0.2187506311333543, 0.14526571983801995, 0.09662013652460733, -0.11224078685189003, 0.5227681931757919, -0.2062399572700019, -0.06726072128039581], [-0.09063908511259584, 0.29397189639374927, 1.029543497940693, -0.2813810417841639, -0.10088627772596087, 0.23779058165119984, -0.7038134183939887, 0.6111529034721247, 0.40757764818700676, 0.1014075618726749], [-0.520863016820858, 0.3194373664856203, 0.007316100991320865, 0.1365799092221612, 0.05975211556669157, -0.46482767736673675, -0.2481996330109893, 1.1487987052123687, 0.346120532957499, -0.4219228983349981], [0.2737163002779005, -0.12050872878819029, -0.19688681290532425, 0.014816588546348566, 0.26039228329334574, -0.12838760742699817, 0.09428205332573063, -0.4659537649043641, 1.0300080861843341, -0.32315777239913], [-0.3827055734495361, -0.2948097500676618, 0.5197167947522352, -0.27843458404849664, 0.5782819239203599, -0.3356531294882447, -0.08254630841424097, -0.4761799730468212, 0.069816484305917, -0.27919291412063335], [-0.5521959505253048, -0.006687051567106254, -0.43895116789736877, 0.5070814507922747, -0.1052197224790475, 0.5147091212070128, 0.03834007114587658, 0.12178967550535182, -0.36121414302559324, 0.5405792941981822], [-0.42417862501432657, 0.21812806288245057, -0.4504453816083273, -0.04321247283700529, 0.02220472519000817, 0.681730951665235, 0.007855533548281059, -0.041794541400232255, -0.40024666266709763, -0.3655291883585757], [-0.20765379457997218, -0.03936285170342754, 0.5856490476496689, 0.652642378128597, 0.010938657206839264, 0.3995066234026692, -0.29485762102804847, -0.035933337160596796, -0.20521324517412406, -0.5029753395352148], [-0.5513440325132013, -0.14272066826143906, 0.17374433139808854, 0.1985186433651714, 0.11346974774501027, -0.5049489087640701, -0.37556596861685165, 0.3087962494308746, -0.5623698953920458, 0.10292351081219733], [0.21024877326265173, 0.5153932870761413, 0.14022693648819673, -0.16360484082646287, 0.5770168482756631, 0.8164006967492015, -0.3003466139352517, -0.4037967100084182, 0.18318459862974282, -0.4551856694970953], [-0.07887935095057702, 1.0531904871897266, 0.492264725511734, 0.1586650247328236, -0.22873606681934175, 0.08297257453246794, -0.20600785791928455, 0.5569598376774686, -0.3920357446671837, 0.10322047238205892], [0.6515637363814512, -0.05506478171939445, 0.382743990001244, 0.5435480085781648, 0.05266025370252652, 0.3242808047285384, -0.9423572632987905, -0.27563734850703275, 0.3313901265804763, 0.28904272043771695], [-0.023239009862053378, -0.3499657382412196, 0.7160726642354621, -0.6426615268797266, -0.046211090603184464, -0.722527571217678, 0.5330244298312544, -0.37921984305465284, 0.6976250531022362, -0.18481976413238208], [0.8324010201858327, -0.45386446421325144, -0.15059392152344725, 0.16175200639247592, -0.10103516142937169, -0.23991474416665767, 1.0243340417322049, -0.36754878937251845, -0.03703398008664943, -0.2906372316692278], [0.6091170227374368, -0.5101389602290755, -0.5119236536470564, 0.4645555183249912, 0.11624917080115683, -0.011460395741812306, 0.08656459176860365, -0.2294129863369905, 0.46168423524845353, -0.2351391796720656], [0.39771934962583055, -0.378815599230018, -0.7092074252899832, 0.3503020884240035, -0.14081868256979124, 0.02472222581643881, -0.23143335704152915, 0.5345168883217639, -0.020703171980810463, -0.5567411848638003], [-0.37185183367667524, 0.26533373970490354, -0.3597235612623985, -0.8741051998692715, -0.08387722036689173, 0.14730054977936766, -0.1179130203431002, -0.2181424267095294, 0.8262161386485776, -0.36358096987591254], [-0.766026734315623, -0.6572308737643598, -0.4587131894485202, -0.9068070349527391, -0.42579646131234483, 0.540179561430826, 0.0814686616030083, 0.013410468565605469, -0.3246596704972101, 0.4355044808467652]], [[-0.26577505073145063, 0.039958306350097714, 0.182483510341494, -0.02078679039183159, -0.11799820332953086, -0.28431533478824184, -0.07694202599889717, -0.1678441270789082, 0.22795277201065525, -0.009120582453328934, 0.24716812349341258, -0.20161532298506857, 0.08717021544139228, -0.47215377873507497, 0.11689376930532969, -0.516465003493251, 0.0005139487178072356, 0.5667397553003177, 0.027511122897126955, -0.2486983184904813, -0.2312791882205743, 0.5790034808102157, -0.12356918972911142, -0.14475464059468773, -0.02268433379089867], [-0.006512978009958106, -0.5897958559293491, -0.06404013413993595, -0.1440843432156937, 0.0568491695012067, 0.4892302718418393, -0.07142544320120639, -0.680263734277938, -0.05134994235178612, -0.5152289612042672, 0.13533698870529415, -0.06109465946283097, 0.2248407542762238, -0.5523973557815143, -0.1693791204920732, 0.2844265657792446, -0.44595312446697677, 0.2871827008727696, -0.00683313836289282, -0.32438667539185334, -0.1363932825454102, -0.0841862555910519, 0.02267067275206663, 0.3477592975848602, 0.19141585099498895], [-0.12171360785964017, 0.37574585846538583, 0.15626312702316503, 0.09737222665560492, 0.012269746577856629, -0.15946736289155852, -0.04185515264440773, -0.0006603356416763575, 0.0006430568844466656, 0.20761251572563194, -0.09502109069525558, -0.011372390205487049, 0.3233722377131573, 0.08111420630502518, -0.2578752987901447, 0.6676307248718453, -0.005547508808257531, 0.1470688498743242, -0.34592429080401893, -0.055729050643178166, -0.0359944080838013, -0.21139064670549176, 0.09895582030934372, -0.0005121553704212187, 0.2282555694537717], [-0.3967853011202027, -0.08039191749971494, 0.42533868723039686, -0.17647316964691262, -0.23864875952889397, 0.3186600507598042, 0.1166035355997154, -0.20777521312254654, -0.08223603204690967, 0.3954147230844139, 0.09213496748014002, 0.26251879580288057, 0.5122150511936713, -0.694717482546658, 0.14969762437867568, -0.23457653578359705, 0.041063670734271286, -0.014449143147240948, -0.02739946928881387, 0.27966040138355697, -0.08257354131131785, 0.36764634212030134, 7.503314597870586e-05, -0.08376903050591161, 0.7579270553525521], [0.5496452111793657, -0.06217812244285577, -0.09736466198186854, -0.6154143907723956, -0.11867355115590336, -0.2964854930709483, 0.37249445754495314, -0.222042553939983, -0.2630065276827551, 0.3506708585792649, -0.2540218851246993, 0.0727177506282493, 0.13686000593012518, 0.04492985384286525, -0.5324889099123629, -0.43617287733409216, 0.27487109870398885, 0.03391442019019567, 0.5024053337106407, -0.3881977020809679, 0.1130766659119467, -0.026666224524533384, 0.26103530862275054, 0.3067158725551073, -0.31045575849388085], [-0.10921263489459891, 0.1428133036892955, 0.0809923392858364, -0.17174391932687635, 0.017288040020952515, 0.306616444465305, -0.5279115502316433, 0.2090829249067039, -0.24872950867182594, 0.14246851634576282, -0.2524309043015559, 0.2900150530553414, -0.15081060335993324, -0.09644045821973116, 0.4185989437649466, -0.28278231968687645, -0.41175064904591013, 0.25649341477367876, -0.19714870762333922, -0.1615344606950517, 0.336280203038123, 0.1520893734838141, 0.01996848568269805, 0.06648585932895397, 0.0019258668120761577], [0.016181221714971546, 0.1738573480446675, 0.07018485533308277, -0.35785035404082166, 0.07272327532314146, -0.3561228310206181, -0.41633600695981615, -0.201939357655473, 0.21452642163256788, 0.3375935662317677, -0.13963338328454952, 0.3130595202714801, -0.20416348086994482, 0.08317140381308953, -0.12038590446724602, -0.1298961378374751, 0.36835323790428504, 0.016040492673147506, 0.26940149672384517, 0.0031302011653737416, 0.11895551116178077, 0.13565088502677716, 0.03406018153757532, -0.05579222444966671, -0.12179863597019748], [0.34108053616761813, 0.20949609442758776, 0.02343658642451299, -0.2108463312097714, 0.022868718540837923, 0.40665885695879206, -0.3075568146999185, -0.059663026703604925, -0.08361720930293964, 0.6988629797946666, -0.16945387954889565, 0.12724102534332565, 0.005470168629427167, -0.15802266579600693, 0.13233310381491614, 0.21821933079255854, 0.12730211474935352, -0.041866953364760456, 0.15404192062034935, 0.4151856209596004, 0.461470933358976, 0.3043540635288642, -0.4455363466900179, -0.11214013446363343, -0.12096944351482174], [0.08454884836829889, 0.22106030368312074, 0.2040513181688306, 0.2816499446979683, -0.17520222655026144, 0.33866856637745824, 0.1710688413287387, 0.02454566649542555, 0.01672998020054919, -0.8376440926168138, -0.03881402395613526, 0.37165933473119744, 0.15876584993884799, -0.35012646540091474, -0.007195331800496097, -0.01090626346680263, -0.06724296177912344, 0.007935652046025136, -0.1951481763809192, 0.22529050295256092, -0.03744164537525036, -0.30389445635278167, -0.01429234865753785, -0.16810766341922792, -0.2840010428250067], [-0.005350836312043692, 0.08190937278335957, 0.04693181193155892, -0.3618607914395507, 0.4221809008216538, -0.06599430145576012, -0.16934989877649895, 0.001910843915645857, 0.05040838884601318, -0.19286642062928305, 0.4469677864175152, -0.849245410502872, -0.08419706481592114, -0.01731452411341293, 0.06429531161158852, -0.20450033559572214, -0.37762024016897844, -0.17250933841970909, -0.0015942902025935478, 0.06309104076364216, -0.11006676917362404, -0.1898700843484164, 0.1477201530844372, -0.08605652524069718, 0.30612606234589906]], [[-0.11329162301315705, 0.08027440047500142, -0.23625827756514525, -0.03721389721697112, -0.11382568111825647, 0.034831494484625365, 0.11505021676306035, 0.0027291252814545023, -0.01812388417365708, -0.15906651006626177]]], "biases": [[[-0.15703933677886767], [0.1030975550931282], [-0.08053210570527125], [0.02200997258207009], [-0.11360148755407831], [0.18855568521924013], [0.08232211117411521], [0.13831974535914754], [-0.0973767728490325], [0.23866783353363794]], [[0.010245398351988922], [0.06356515350427877], [-0.011550446116188393], [-0.012932826723485651], [0.0002476646502905598], [-0.026304456171680115], [0.0512157940495603], [0.02327628798904931], [0.014358962247179901], [0.03177012256811965], [0.02346334715853523], [-0.11432389659367741], [0.07940228978346149], [-0.0003235626582216441], [-0.0038465465345035713], [-0.025603642900391247], [-0.02175144533700704], [0.0214580635139747], [-0.01591264519402524], [-0.017046587176635857], [-0.0393594452459253], [-0.0046283967440286945], [-0.015825336545120007], [-0.02167819317546061], [0.0698507350590434]], [[0.03827103893842691], [-0.0338428079742815], [0.03704883421549013], [0.022609226475151258], [0.021142768742886644], [-0.026253004068731853], [-0.06965888907561844], [0.0027548193008008325], [-0.02587700101994358], [0.0537115215018598]], [[0.2399681042653294]]]}