{"layers": [5, 10, 25, 10, 1], "weights": [[[0.07985219292495553, 0.17601985266878548, -0.0038959841654850084, 0.3538670762565269, 0.4236388856186767], [0.027355161465539124, -0.7418443087152002, 0.24863795091619412, -0.15821287538591017, 0.23884309572682297], [0.8410496825439787, -0.12567557299275617, 0.6540398245396438, -0.4548580548150579, -1.3027944837991048], [0.7178399050859762, 0.22110103699521222, -1.268686421637979, -0.629567903623827, -0.1032596097661465], [0.16807075879802055, -0.25273636247377396, -0.7937767080361572, 0.609257042774755, 0.7703420073091224], [-0.3174297404214564, -0.5836950875191489, -0.209097422864845, 0.1995691905093607, -0.7287350341231289], [-0.8061614809831881, 0.2585457322047994, -0.670035129485894, 0.48666018166624553, -0.6196179066785262], [-0.5427140293793411, 0.15392046592595862, 0.3445970558181257, -0.4384289659302533, -0.6034299720544167], [-0.18317387354900427, 0.022075272388516948, 0.32387348531594135, -0.30555610782601506, -0.5424352167969526], [-0.7161569368998083, -0.5636086888104543, 0.4051943655115019, -0.2791269924539176, -0.7633139212795138]], [[-0.6616240167477311, 1.0619831313764088, 0.7423169727157565, -0.8351102597039217, -0.05354180286760546, 0.1701060982854906, 0.4253047884500074, 0.7058537353700585, -0.45632238740161435, -0.3813760505624345], [-0.29768706494738995, -0.1841207894449995, -0.179100649653028, -0.06763461655757227, 0.5070677707423076, 0.2706679457764015, 0.5358877379547022, 0.625227850435845, -0.7425775983186623, 0.7844407390245736], [0.10279132805539246, 0.33544208378280554, -0.39153246693564325, -0.05330554694514958, 0.35504464705465644, -0.31405359613856404, -0.4115226106095904, 0.8003401443189478, 0.48270340173923454, -0.5726612233951378], [-0.11907045035520565, -0.5557221191375735, -0.02650166478248242, -0.3336224783356514, 0.20486521274656683, -0.30757316688390673, 0.48241829397200625, 0.9103872009575578, -1.0127448292781893, -0.1332090778343932], [0.5963291733659642, 0.7622142766926, -0.15008212197033444, -0.13559073191851437, -0.5559211308223845, -0.3014063845986548, 0.049208702407920586, -0.08088320074720635, -1.1063830583849523, 0.6331821371002638], [0.1328667404589706, -0.3945085078745045, 0.45285651606955596, -0.07964997761572348, 0.5297056717967523, -0.021418864385268004, -0.9688894575345063, 0.886335648553753, -0.06828655428546959, 0.443009280880632], [0.025238278491180488, 0.6599199448388684, 0.44293460554265596, -0.06572243989492688, -0.0972381288340538, 0.16866616485905297, 0.07095345275588665, -0.7166675148600486, -0.32685016608371653, 0.5473533287152343], [-0.2956411030837393, 0.27925788274508173, 0.06719342627202099, -0.2183196828344201, 0.145679181023049, 0.09673534413583498, -0.11171464056229577, 0.522536940345343, -0.20649277129696925, -0.06759703057608112], [-0.0908262462186389, 0.29405040142809896, 1.0298343193830888, -0.28134474779022256, -0.10112277167608599, 0.23804950252738902, -0.7036706249967856, 0.6114253293075744, 0.4078556308750011, 0.1018330855487686], [-0.5208582522799152, 0.31913099975759585, 0.007438955613937879, 0.13752965961288854, 0.05983100956542776, -0.46509700556203626, -0.2482319513575665, 1.1486174600291044, 0.3459255713087061, -0.4225091439600904], [0.27380887649643054, -0.12062527533813759, -0.19663362454303326, 0.014623926737557573, 0.2600959127798649, -0.12874368454292515, 0.0939261829400181, -0.4659987887308753, 1.0298702347767514, -0.3235007230894486], [-0.38280172600156065, -0.2947072865022662, 0.5192105103303347, -0.2784616108977593, 0.5786540664972606, -0.3352214390271265, -0.08199477606691663, -0.4759661192401294, 0.07018150656216512, -0.278549454552155], [-0.5522477841548434, -0.006839078708192768, -0.43822717955025436, 0.5072952293404418, -0.10573119483965504, 0.5144513515818433, 0.037981593980464946, 0.12181878861015585, -0.36128373402273806, 0.540250893726273], [-0.42407491125203184, 0.2183326232534618, -0.4512920644968127, -0.04305892982280972, 0.02310799257100401, 0.6821726008606775, 0.008356228954186336, -0.04219757375443863, -0.4005453196841059, -0.36550770221429135], [-0.20777304022627563, -0.039752171624478895, 0.5855136281671348, 0.6529581140305638, 0.010796943637351229, 0.39960829839879075, -0.2942161260486104, -0.03552221536971085, -0.2048732368392656, -0.5027052060467867], [-0.5511351575244502, -0.14274938281561486, 0.17377428211071563, 0.19745457714225229, 0.11302855813641538, -0.505464673404628, -0.37610158559318285, 0.3088735302259006, -0.5624315352848411, 0.10276131265383263], [0.21018318852155948, 0.5156330934790536, 0.14019390048626879, -0.16324775203808292, 0.5774728293907613, 0.8168057716882472, -0.30020582454512545, -0.4040336271045448, 0.18312589665571655, -0.45505887395619765], [-0.0789976920738638, 1.0531112483679852, 0.49265414100239885, 0.15929691970523793, -0.2288914022661326, 0.08289333366365659, -0.20614256859689672, 0.5569728262884907, -0.39201746724944236, 0.10305412566225512], [0.6513993396785293, -0.05463183823770195, 0.3828357868744609, 0.5435928516269367, 0.052806764645140385, 0.32464581610302634, -0.942458779096845, -0.2756093393566703, 0.33158599331203437, 0.2895262467076248], [-0.0232474685410673, -0.35023423113628915, 0.7163737910718532, -0.6431948440901192, -0.04673455714547696, -0.7226279535842002, 0.533144292032352, -0.37884424809437506, 0.6978987312466228, -0.18461851317944575], [0.8324009493970171, -0.4539905574373529, -0.15081364685227128, 0.1618439820636055, -0.10091494066242429, -0.23985119589822956, 1.0246217223074434, -0.367470534538818, -0.03693791442919464, -0.2905490757244804], [0.6089824737848101, -0.5103995481108341, -0.5117778194423105, 0.46544881649369246, 0.11624632542799061, -0.011474350793151579, 0.08678957216783066, -0.22931159747663424, 0.46181397991373685, -0.23524190355443667], [0.3980101434252199, -0.3787832864955987, -0.7096478759728366, 0.3503030645750254, -0.1403352472539167, 0.02439065197147033, -0.23176365490709824, 0.5339443528134891, -0.021262862922378594, -0.5574560465477019], [-0.3717970842597425, 0.265643458300654, -0.3599783006826382, -0.8745412927179608, -0.08377333514725503, 0.1472572700838059, -0.11820527663292807, -0.2182019006138284, 0.8261977056385337, -0.3634391232676722], [-0.7659507038998198, -0.6576170810666739, -0.45851260639100694, -0.9069586682915791, -0.4263877901973496, 0.5396330938896897, 0.08128184454537683, 0.013618453614646909, -0.3246969201948597, 0.43512833488832453]], [[-0.26637544616279457, 0.03925114208419665, 0.18240914300641625, -0.021083985598871122, -0.1184686120765475, -0.28450155434685687, -0.07689210608008194, -0.16810292749275133, 0.22809122925425854, -0.008849158106850594, 0.2472541616002723, -0.20144221672386878, 0.08722324124025715, -0.47239931406380004, 0.11827090978769968, -0.5158389381772703, 0.00045433980575084306, 0.5670023201399529, 0.02821637111798425, -0.24877120844241515, -0.2311547540043325, 0.5792742394694388, -0.12316872902978507, -0.14593127506315143, -0.02394024296537688], [-0.005474332497099937, -0.5899197578257387, -0.06379731267747142, -0.14433203522294774, 0.057339040249861514, 0.4901979225859077, -0.07129218334632723, -0.6798622641995696, -0.04992106576893586, -0.5146910592530123, 0.1349752119453504, -0.061286347492972786, 0.22453705830752468, -0.5527841964049056, -0.17020664274928357, 0.284351086440564, -0.44630292957012146, 0.28781995689401507, -0.00675098306988868, -0.32395246408870604, -0.1375356254765015, -0.08507307022810785, 0.022020968471183323, 0.3488188387964142, 0.19227699823543318], [-0.12246834095986071, 0.37412450943060505, 0.15684764595984238, 0.09761957482383152, 0.012495166333041164, -0.16003756718768555, -0.04197239315410046, -0.0009668282252922322, 0.0001671884394559342, 0.2077561327453572, -0.09466773948538999, -0.01090761194844295, 0.32234745156151917, 0.08082847240656632, -0.25691044534768387, 0.6685982842865735, -0.0055227805987619815, 0.1468550015972216, -0.34560187918202856, -0.05533890705629083, -0.035559024963165535, -0.21100390729989274, 0.10012726553293562, -0.0013122240259514216, 0.22712824805058668], [-0.3969154873307796, -0.0808299676219371, 0.42547968185570506, -0.1762670073442812, -0.23879299766173281, 0.3187389038831328, 0.11628411472522779, -0.20784926433702577, -0.08200004950355363, 0.3957915657065294, 0.09215894199118593, 0.26252472161088153, 0.5119157749201461, -0.6950895672047256, 0.1498809307698168, -0.23429594649448923, 0.040536423386053615, -0.01448824459468404, -0.027380706553119395, 0.28009778850876205, -0.08244868149752875, 0.36770406054083987, 0.0003821309903253092, -0.08395690515539629, 0.7577998100841764], [0.5494813548015756, -0.06292365509648665, -0.0971998002766261, -0.6159700815461606, -0.1183889437471933, -0.29665865299401073, 0.3730962403611426, -0.2220974100543472, -0.2629902948701598, 0.3504685868019414, -0.2539255837850504, 0.07306484807590247, 0.13663448134498, 0.045087467418564654, -0.5316985357722211, -0.43573396337098125, 0.27568908856440283, 0.03429229172805903, 0.5030904181267666, -0.38857764691813124, 0.11270285310682926, -0.02673968461189329, 0.26114832323862025, 0.3062930827391023, -0.31138977381872573], [-0.11027050103140085, 0.14301043492492452, 0.08107652093833159, -0.17128353146442288, 0.016837361000504873, 0.30610601057210507, -0.5286003960241337, 0.20877952927405694, -0.25004706769558, 0.1423652717246893, -0.2521180923857504, 0.2900474192879066, -0.15060523644724436, -0.0962432071062898, 0.41870913916324026, -0.28281568982414584, -0.41199814265669177, 0.2556964493976612, -0.19749410532326012, -0.16182665524733225, 0.33729325706655167, 0.15301107901522515, 0.020690634713530297, 0.0659985330542858, 0.0015049263787657798], [0.01607065942717358, 0.1747407179098237, 0.06995998626665471, -0.3579796378300852, 0.07250351270068416, -0.3561075979759555, -0.41638719630580434, -0.20190427810676395, 0.21414772289988604, 0.33740920733165103, -0.139667264208125, 0.31284575457476715, -0.20345792321737108, 0.0835174639165397, -0.12070775896253302, -0.13035623909392072, 0.3684863038119919, 0.01593365380710419, 0.26924039451566384, 0.0025582071017971127, 0.11902450191096638, 0.13583172604979454, 0.03375710722212163, -0.05566665475608153, -0.12160230361074346], [0.34173894268470595, 0.20899751750930876, 0.023354004301157895, -0.21094020423672075, 0.02274870313033724, 0.4073582077514487, -0.3075688199195297, -0.05953291284193137, -0.08213650155009916, 0.6994716070935714, -0.1697256142610789, 0.12723539153934138, 0.005090080204846529, -0.1587065348983846, 0.13251314032290568, 0.21845930657759516, 0.12666284473344772, -0.041329744753371346, 0.15436455109622496, 0.41601896399600563, 0.4608967060887579, 0.30375402478890645, -0.4459092503558705, -0.11202036009346217, -0.12076178343851095], [0.08507362377573109, 0.2208803311611976, 0.20386549216018898, 0.28161678507799565, -0.17517027384592784, 0.33888592966322006, 0.1712931739241205, 0.024624608474367534, 0.017434730290412214, -0.8376308804639268, -0.038941138496754665, 0.3717564652939183, 0.15849634901248685, -0.35035735188584693, -0.007121801176224709, -0.010896838013400948, -0.06727227930090374, 0.008177498792208682, -0.19504267924703722, 0.22577372104234192, -0.03767255791920091, -0.30429345209473974, -0.014632900855806267, -0.16797702258538025, -0.2837644841214659], [-0.0053655908633908015, 0.08094240452549571, 0.047296742845839575, -0.36169429219015914, 0.4224635371657571, -0.06613769538992703, -0.16935327498037048, 0.0018532530640213048, 0.050649174565501935, -0.19258890051622488, 0.44704804212698074, -0.8491190512953097, -0.08490733531715323, -0.01767981200558541, 0.06462102301485968, -0.20392866732433693, -0.37783932024696937, -0.172415054059934, -0.0014786238703071832, 0.06361932959860793, -0.11009469150771702, -0.18998536576422284, 0.14824047398889098, -0.08626467618695877, 0.3058573398441501]], [[-0.11202118159951385, 0.07946677931594517, -0.2355976858717332, -0.035244441516330646, -0.11222894847509039, 0.036256720835657806, 0.11541898814201883, 0.0030532209147607955, -0.018190775836941814, -0.15816038590811976]]], "biases": [[[-0.1568525958049646], [0.10224466761410238], [-0.0815037550925655], [0.021667924558937207], [-0.11352438349455928], [0.1870288742104378], [0.08220324682229053], [0.13839946189368707], [-0.09779849517980314], [0.23780153760522055]], [[0.009981683292771663], [0.06337274041785211], [-0.011154998498816196], [-0.012731858468629464], [0.00043858170623157236], [-0.0262325835349302], [0.05122692466812803], [0.02340510219015921], [0.014019534062231553], [0.03170323639917114], [0.023651091689293666], [-0.11433437098624628], [0.07924243037907372], [-0.0003335528341872042], [-0.003914887140996082], [-0.02499582839630629], [-0.021922917856251025], [0.02123168985809823], [-0.0162465751035405], [-0.016839462959026275], [-0.039293271271928346], [-0.004828353469425039], [-0.015420187030681678], [-0.021629926380400323], [0.06991231852686818]], [[0.038171105243019664], [-0.03397830923010544], [0.03782831712040327], [0.022678025020683504], [0.021239030573564348], [-0.026151089941183273], [-0.070146850361719], [0.0027570723342666458], [-0.0257462541621102], [0.054050629248610677]], [[0.22628628079979995]]]}