{"layers": [3, 25, 1], "weights": [[[0.39782432359315323, -0.10150464326445494, 0.1429726508858039], [-0.29764400469659613, -0.1891636304562238, 0.05286581426632545], [0.39438540154065393, 0.3338974689055891, -0.04352326455007027], [0.2961500205599383, 0.27701034357157944, 0.3485549716293512], [-0.1178061745069548, -0.06983768964681022, -0.1395327049959089], [0.05338034389778098, -0.18499821476784897, 0.20210802561358376], [0.0012740969024757213, -0.4457735978796337, -0.3664122909538293], [-0.23377635122676602, -0.3426110988299664, 0.28030232544143036], [0.21473038408071082, -0.3526312846389518, -0.27598519152153045], [-0.27307572680242975, 0.2561478817650573, -0.17867748733179686], [0.004713374834706288, -0.3476616537510649, 0.20685097914351133], [0.0215902036510224, -0.0006791784540458799, 0.14244422367994244], [0.161472580528866, -0.012731404687223773, -0.42531997081952544], [0.08209933277992697, -0.3343407423085571, -0.30414792386143796], [-0.1548293442551344, -0.35322581897793426, 0.40103523521045553], [0.30151382225983503, -0.288322288594966, -0.08567456995898459], [-0.17543668493312878, -0.21530073017778406, -0.03233312512724699], [-0.12731054793501045, -0.422820137602134, 0.3765042756826224], [0.07532227837755301, -0.21281539753747217, 0.2888869147148272], [-0.26174608534903937, 0.21933465447318096, -0.3124095877871771], [0.3826482456845593, -0.16318102002315482, -0.3039747695902234], [-0.41473180328041537, 0.07246670100145032, 0.4512936730453336], [-0.0178616558647255, 0.17472080078225447, -0.17923611457028027], [-0.22308316002172335, 0.020168145639616386, -0.17191410098828433], [0.016140097455623763, 0.20035257617837765, -0.43467818374805656]], [[-0.013594137769276558, -0.012702776107479101, -0.022067330490080996, 0.009421835821764046, -0.03144878382882966, 0.011914818141337491, -0.02916800062075203, 0.03071558994999186, -0.026230668638246284, -0.014145080846922155, 0.01685654496971237, 0.027803166028845052, 0.033616654327721374, 0.022032158176809494, -0.03180178161213258, 0.01963701313014123, -0.004412626049633268, 0.02295590909455293, -0.028406454278884795, 0.02822785655175347, -0.00012155586151970276, -0.0037581673697013153, -0.030477022752643863, -0.012467605377989343, 0.016569763796781264]]], "biases": [[[-0.007126286046259409], [-0.006503579874135243], [-0.011263275235015515], [0.004755341278265542], [-0.016050799718693286], [0.005968282083739006], [-0.014987282370137706], [0.015585725432295708], [-0.013528248838219487], [-0.00703548938673114], [0.008451403453406581], [0.014184461011681148], [0.017261627259506817], [0.011212480965678048], [-0.016455469318398315], [0.00989327368865322], [-0.0022802803334265953], [0.011536861119492195], [-0.014699267898328474], [0.014662799913714072], [-0.0001387767823454257], [-0.0019065317560847867], [-0.015483978158800198], [-0.006273219130459597], [0.008652102671577738]], [[0.5645539359205376]]], "activation": "linear"}