{"layers": [7, 25, 3], "weights": [[[0.33690102434998864, -0.16297632202519302, 0.18287358042909235, 0.14971938749567137, 0.15914976689680507, 0.001810161198402216, 0.1665465555785551], [0.11179013374735085, 0.05521220183809239, 0.16086323347519718, -0.3311235167880215, -0.3453964978740271, 0.2397253608779366, 0.15437322955280805], [0.17493844937868633, -0.40349104196252905, -0.2125254241154062, -0.2794049598311682, 0.0966279724231053, 0.4046205008642445, 0.3805565190098362], [-0.275920193969822, 0.16186392789864334, 0.2249092407365328, -0.08404898160991853, -0.3008546790900547, 0.0464382715075648, 0.25460429452717703], [-0.23166723877026676, 0.07562674740503805, 0.37925131098751236, -0.22948549312513408, 0.17846405579039953, -0.22166739087998386, 0.3017571853764903], [0.1422138677098866, 0.27912510358633535, 0.3023104912500666, 0.2448027232016321, -0.26289315022324894, -0.15485915423752566, -0.45232123487253134], [0.13061758099049023, -0.3454528597963984, -0.008836912863705993, -0.37002869140615147, 0.15193079114560967, 0.30691256890175067, -0.07141763513998214], [-0.2516674438574766, -0.11199189913366103, -0.3176799835539439, -0.36493098975454863, 0.04475290942675622, 0.025571025410278503, 0.33540817907336057], [0.2293275381723918, -0.311003289497258, 0.39540290713455073, 0.18329573787717968, -0.024545986175370862, -0.3034637318447312, -0.26966574019426265], [0.03686856168215275, -0.1583970301358808, -0.4179134574544054, 0.01420171469469661, -0.13229747369751796, -0.2103019212172413, -0.01695748992015194], [0.09455359670231572, 0.010213018908656557, -0.05940193302917147, -0.37107765457236147, 0.03380610442232654, -0.19887223983994268, -0.3417397525062392], [0.0018841670725014616, -0.35760909671414665, 0.08015505057753425, -0.029328777356895597, 0.304263681902394, 0.20055486644278753, 0.2874796818624634], [-0.07229919891168052, -0.4197646015903191, -0.11223883041266601, -0.09470504648111788, -0.24767023208400096, 0.1185810883401216, -0.2570908134368282], [0.07841965244829968, 0.0038579546169272283, 0.1337207105646999, 0.0694584973672362, -0.22075787767183952, -0.23895347106132875, 0.007529217615993895], [0.3043203711594821, 0.36185595896716916, -0.1040063444866317, 0.342927304531078, -0.08951863706235073, 0.41840704649451865, 0.13743213334139284], [0.09507213853157179, -0.26091019192645126, -0.0618620223203408, -0.2783508695043751, -0.04137539382801848, -0.0271365591679103, 0.2974849553700252], [0.2738148933221308, -0.07804687490359724, -0.31145324876224056, 0.2720302111966735, 0.05257508132840812, -0.0716795039559211, 0.26061913394680747], [-0.17694231939310412, 0.19348746359383362, 0.24305083004958908, -0.15998252023442583, 0.048810889478382004, -0.40846109959004173, -0.39715522101693396], [-0.04519145031291251, 0.40291159709429647, -0.08307326810364987, 0.05792661074270772, 0.3449467595584536, -0.1511936021093771, 0.08241363149347176], [-0.41757595678483495, 0.4203108891378652, -0.21682969426953466, 0.2787071376695618, -0.239342408241819, 0.2924157706829351, -0.4043973021795766], [0.05945158209474695, 0.13303750986675544, 0.17541787010730633, 0.046521591788581396, 0.2116732178984099, 0.22610408147479222, -0.23399146643822186], [-0.32828817449779507, -0.0776594315356286, 0.06785958563302226, -0.0024455689431943095, 0.3094521952102839, 0.3602325985090922, 0.35699823577388395], [-0.39142654621826306, 0.1154518015098237, -0.1001850559982987, -0.13785844172320205, 0.04341010285563877, 0.361742274691794, -0.1882387573519079], [-0.2232402802135156, 0.26363569523152874, 0.06566171090433158, -0.021494913294968776, -0.06084543928203479, 0.3149017205541669, 0.3961543491055495], [0.35158837598902615, 0.14578764364255248, -0.102434477117602, -0.08212805685814639, 0.0590764451007916, -0.286498143067511, -0.4100181198522173]], [[0.048931142254897746, -0.40872472545295324, 0.20740321063738593, 0.08434536189045028, -0.11667580650970073, 0.09264637745801223, 0.017534749313010026, -0.28341948291048, 0.225663702671602, 0.2460736694004252, 0.21057317928552916, -0.4190762969120839, -0.18557942042307257, -0.15192713098769017, -0.03059384715152142, 0.2615527655304978, -0.4270133809997234, -0.4380675476089081, 0.4095037859405426, 0.1477679494515444, 0.26714917819601397, -0.2032172281058813, -0.1902058185081829, 0.4212396819970734, -0.392563004477], [0.058141505798222526, 0.34422646026744996, 0.2894001370784118, -0.24416228215037297, 0.44928617136893445, 0.2679343792911513, -0.29528924722929045, 0.27884839103972037, -0.4255680672267787, -0.4819524173157467, -0.1398366538337191, -0.4596501130466108, -0.18989440811555033, -0.1478654012299265, 0.18048410525749808, -0.24618508847374176, 0.08859071252867327, -0.04161214106847114, 0.1316699447805406, -0.029965831389751438, 0.06319547318276049, -0.26292499877340875, 0.3659270218398291, -0.25822921405294735, 0.14730949097139384], [-0.3532247813925187, 0.31313459021440837, 0.13829587558352893, -0.15001547750157407, 0.1198662352571374, -0.29547541841077535, 0.08801965340616358, -0.18358947038717277, 0.3594861327054731, -0.40768045181157225, -0.34867249914178056, -0.18311880574385409, 0.18124973532305136, -0.384822301332002, 0.13519393726229967, -0.28915312268048754, 0.2516562188531622, 0.1262914759434389, 0.2336168041398861, -0.06277445240477868, -0.4939993395320593, -0.13991983932759958, 0.24583086714445382, 0.04281110173795586, 0.15084088978356655]]], "biases": [[[-0.0012184915492424757], [7.679391831197228e-05], [-0.00034299798124100766], [0.0008125382967942264], [-0.00023864582470974868], [-0.00025559661776445615], [-0.0005461840781788574], [0.0009887193638863634], [-0.0010947447563269086], [0.0006850309126551068], [-0.00015676565452311486], [-0.0005076283571131623], [0.0007013471629639153], [7.076002999991704e-05], [-0.0004512255257844785], [-8.240756926172379e-05], [-0.0002995898584144732], [7.752168518989302e-05], [-0.00042274668406916215], [0.001623418305269738], [-0.0006407972486336588], [0.0002266469716020673], [0.0009699936732194332], [0.00043726520388884135], [-0.0007216963163115803]], [[0.00019994242356322016], [-6.4742427572062514e-06], [0.00019283679250579352]]], "activation": "linear"}