{"layers": [3, 8, 8, 5], "weights": [[[0.491409701138997, -0.2938236564031058, -0.42374495209206636], [0.29219657479820793, 0.3051037598196818, 0.8030162626153293], [0.20261500002060492, -0.3257931591927109, 0.609465545670036], [-0.4318221025838008, -0.007951247031004267, -0.8103425287574033], [0.3027310607236145, -0.8030781903420054, 0.8771593059741349], [-0.9481501317549329, 0.5665123602241544, -0.4095902963316605], [-0.208066194670704, -0.23165521382788914, -0.256853631544887], [0.7787543330837755, -0.47881212858144945, -0.22187325532622168]], [[-0.1373291396798734, -0.3915046419962472, -0.28430956410372615, 0.38871081472053637, -0.02722328815055607, -0.10221130507601682, 0.23910741576095704, -0.31277879474849535], [-0.24399036900761378, -0.11920415486927069, 0.021968382737076988, 0.5632393903092974, -0.6047755983976963, -0.049415729728286416, 0.23199321558848937, 0.2110296071197725], [-0.3972926369103682, -0.29075930312462506, -0.09187299634616636, -0.48978176041285837, 0.47718783216745136, -0.5851996262893917, 0.026164212296772345, 0.2876902434843762], [-0.24912767184314355, -0.2011667261203066, 0.01718225259224111, -0.44606420404941, -0.40353408514021666, 0.6200675636879669, 0.3239762931530321, -0.49121871797574224], [-0.2439820523617611, -0.35283371146088033, -0.3082936922310975, 0.2468996928761553, 0.020716997913321333, -0.3713461489348752, -0.15018034417037218, 0.18414710194226777], [-0.10873773586076185, -0.24913558300533348, 0.310206366826038, -0.5248978039099564, 0.4124144036149644, 0.019036281888567107, 0.02139316871825232, -0.012015104555790293], [0.021206881945240702, -0.31409565794693817, -0.4193894220786655, 0.48673736482807817, 0.24354659760776767, 0.03314906399241063, -0.0013760628958689677, 0.2048556474608837], [0.30434498142992833, 0.6514231592499953, 0.6476244540874779, -0.14169733952900143, 0.4140885504496677, -0.4287943224220332, 0.132023932780745, 0.5013876578716303]], [[0.011347027606139209, 0.026350055130833737, -0.05254293420817325, 0.05225515402097605, -0.00968016133571527, -0.026849431536515266, 0.00309491508229213, -0.06673033733793865], [-0.0018476068333947023, -0.008873570779962897, 0.02154332879070287, -0.023161769918146637, 0.00574878925182027, 0.010366206494424915, 0.0016050166483887473, 0.026620552793381543], [0.0021717940880715374, 0.007489224801962088, -0.011075940058426397, 0.008540153794684759, -0.0011118563922730526, -0.005271906546449837, 0.004381985670812171, -0.01252413330878082], [0.0007984464087537114, 0.00023578018941744963, -0.0001883131253854541, 0.00029429046577245294, 0.0003898054861842822, -0.0006971278192646784, -0.0004161040221999284, -0.0009657401729058027], [-0.008783799612865515, -0.01931360950027923, 0.028599139433876198, -0.02212294987667239, 0.0016416720931903656, 0.015263452891273942, -0.010433748513620562, 0.03449668799085735]]], "biases": [[[-0.0019775408481147025], [-0.0017128800310317492], [-0.013471750167728015], [0.004249864627388521], [-0.0024716063700917475], [0.0020222450583030067], [0.0015324198515509998], [0.0002288085211403225]], [[-0.0012698575324444137], [0.00186779520697457], [-0.006819911075155916], [0.006466965223592304], [-0.004931563477251433], [0.0014489689906760628], [-0.0048577375913028435], [-0.0004501520448731326]], [[0.18115036951076963], [0.3342188765198401], [0.48316993737321506], [0.6517579591261816], [0.796304570155305]]]}