{"layers": [5, 8, 8, 3], "weights": [[[-0.044185726655197044, 0.26122239629002114, -0.2418498383067767, -0.11176486746578151, -0.0648841561449598], [-0.22562929740401527, 0.13121084131169078, 0.2482673893772035, 0.27935146719591836, -0.09269252797169023], [-0.10598374851770852, -0.30380724919748925, 0.011735221802496714, -0.2101382434504995, -0.31437577457716526], [-0.1301826672937267, 0.46254634951103923, 0.09109068125685957, 0.28407901576308603, 0.22748264719468655], [0.009547220392756163, -0.0713674995246387, -0.130057770758668, -0.08610417850713196, -0.056367558133056404], [0.32897648335144014, 0.24980807930993817, -0.3699180226750585, 0.22144006357723087, 0.3700468845367439], [0.011160182877273767, 0.07397524838753812, 0.09058492760278682, -0.04029426957801556, -0.06512355842034254], [-0.18753660006090284, 0.04817971382305171, -0.2895898181294821, 0.23152631032535853, 0.04022584812026348]], [[-0.2893013736550576, -0.14975284645230902, 0.33160825531372157, 0.5745555139951605, 0.45344514150258575, 0.26532248693434246, 0.4000899320793169, -0.48178264450496816], [0.1724929249568518, -0.274588128518507, 0.420630373020631, 0.02821631791935713, -0.43818443818447583, 0.1264770710576794, 0.4796327379904705, 0.08984339787599323], [0.37131998790924947, 0.06225311809751926, -0.07416928892358984, -0.2964407888365819, -0.5252699964152847, -0.14045122031604143, -0.3216419536020594, 0.09867888987674292], [0.24037005611053117, 0.12483782345260458, 0.18316578418389115, 0.07238777794963307, 0.11484988437405763, -0.02651770045809966, -0.2732378025256546, -0.08415310760332242], [-0.38346188656914904, 0.08811826756976383, 0.10255813267944723, 0.1376679960390101, 0.2917579168755798, 0.099662936116857, -0.3177337994761291, -0.05735150317259771], [0.3942751789164261, -0.20387575305368047, -0.04320575340706939, 0.23220235410946424, -0.1340531890122598, -0.19763307423946566, -0.5000900038050687, -0.2740152791272879], [0.0027357325807683165, -0.480478958455476, -0.03776277847915995, 0.015401200167224348, -0.10338707659759137, -0.1770737446725525, 0.14110822880797116, 0.3928374251192999], [-0.13105793390225248, 0.13947360400788422, 0.15786149695281293, 0.12998268485395728, -0.12878316143352128, 0.24703965449084433, 0.44347955657834803, -0.3511704848456663]], [[-0.0508191626799016, -0.0725489335869157, -0.003623164414561483, -0.17870467451306477, -0.1449571943984334, 0.02808557009040535, -0.01854684450849801, 0.08901787104216438], [-0.09311399443982193, -0.1029585592928478, -0.03650449584574448, -0.07518202435199359, -0.15302734925566583, -0.04401511987188393, 0.10949830696376851, 0.07869627154536803], [0.03866949684241884, -0.14136434659870067, -0.12784528532223038, 0.10683831984063824, -0.124758699200457, -0.06441291616588543, 0.12427044996885064, 0.1416686043064944]]], "biases": [[[0.08483366531695483], [-0.14196682406040342], [0.3240410086308218], [-0.32328505962663906], [0.10916177291646022], [-0.28321926993544566], [0.005772587599976831], [0.08013350125488412]], [[-0.06751068335962757], [0.009311328886027904], [0.03211855577806273], [0.03834229663958618], [-0.005961704105393254], [-0.004828916852083011], [0.02830414682449146], [-0.06407947713633208]], [[0.0012306407542406182], [-0.004167563848180581], [-0.0012806776207951016]]]}