{"layers": [7, 25, 3, 1], "weights": [[[-0.3495700056409475, -0.17982661588706605, 0.17362422000339234, 0.32589229671057496, -0.04170720062423807, -0.26499460990770723, -0.16794585987055277], [-0.07013239048201132, 0.2998903348024684, -0.02257388982719308, -0.15373015265492507, -0.17997088545012135, 0.2347447656350976, 0.23479576071839728], [-0.47535302077314145, 0.15250025011862434, -0.38941347680552113, -0.12149823535387089, -0.3571783144801289, 0.13209533110066096, 0.15389506304520817], [0.27992634482526835, 0.37277033016910777, -0.21356709121493436, 0.1065876871007092, -0.25438747783202287, -0.1485023792729679, 0.09349307994377092], [0.296903840633136, -0.13228496877650808, 0.329993106749359, -0.2762629186801323, -0.06945989911053335, 0.1933392673993044, -0.10671103702575166], [-0.26996798927783905, -0.3261713594078753, 0.40114540035135665, -0.06724801665164315, -0.23116011119899407, 0.18272147748478795, 0.2956335326659281], [-0.021895954690580855, -0.3352069186403036, 0.3274552756835701, -0.06659494519022258, 0.017836173684690104, -0.33218361599612134, 0.34885592601494403], [-0.009965955488651033, 0.2989269188575926, 0.5236740620434086, -0.12022324887042862, 0.03099308506797475, 0.22737687942176188, -0.12180868492499626], [0.31271302298142856, -0.12104407147472285, 0.072137166667144, 0.3117119649169494, -0.05339517575071754, 0.4053179666421073, -0.33701781441426576], [0.29253143806190873, -0.341931210070191, 0.1635987650894951, -0.15804725900676286, 0.43296672082429555, -0.015176965086484695, -0.09768828163252977], [0.3388516685027426, 0.3152020838031324, 0.337601582314464, -0.39128171151236013, 0.3316911177244387, -0.13909015613458553, 0.09425169019032881], [0.05196958554810117, 0.04558838327714754, 0.1449560422143727, 0.336297288374542, 0.19951095299612348, -0.08541205759116632, 0.039065563985828174], [0.19637221548922854, -0.3786257092630566, -0.35302436018878897, 0.1339909314469364, -0.049407208414968914, 0.24551552249685038, -0.42921833033542095], [-0.09198891325884208, 0.08897437931991359, 0.15926520326408114, 0.3934447248992473, -0.30248613448282685, 0.33351412998754404, -0.29302052156873043], [0.11443638052488932, -0.16180386864831509, 0.20931780592886462, 0.1492794012112687, 0.025974045634944192, 0.19277925753831182, -0.1066111628729354], [0.18254978272438918, 0.21141738952016587, -0.2744903823602503, -0.027766282624644034, 0.06882723723474425, -0.0744889198315114, -0.06651116453643748], [0.06246478868081607, -0.06167004732516479, 0.1870058372096385, -0.4272155126668208, 0.2254951456693198, -0.1456862332421519, -0.2316788167701867], [-0.3778476310848742, 0.28827543970832914, -0.36295615795687763, 0.24464002290940035, -0.00796442222208215, 0.30279514219808457, -0.42156706827964285], [-0.1040275760033242, -0.4006991223311893, 0.15041066692946536, 0.25020867301971483, -0.419454340067594, 0.24833737130961064, -0.32063622788524443], [-0.2631510726833218, 0.2062979831143099, 0.05257900035662335, 0.22710689073587675, -0.09556600402766263, -0.3750009914410035, 0.2458819287168865], [0.03410348952686379, 0.28110551235496517, 0.20420396711355032, 0.34873958518502335, 0.2701499175914597, 0.00015073489813172136, -0.32673850634844726], [-0.32776753677526055, -0.10893235517236827, 0.3433039482935035, -0.35658362096432733, -0.4508506339014809, 0.2972717909585816, 0.11516418417922425], [-0.2090654342007866, 0.18764636032975202, -0.4512857684508974, 0.27704085036328074, -0.2341937012684699, -0.37883378936705653, -0.1561752078299323], [0.1024027659296685, 0.31193347239587876, 0.010044028574561591, -0.0799746085518, 0.2608245642998552, -0.17578833486435885, 0.049430311540703084], [-0.41735619464796947, 0.3103017739411882, 0.00751297119701318, -0.253949587349657, -0.14221274098486972, 0.4293286441508407, -0.07148920098009655]], [[-0.4320456267204544, 0.2848163302864601, -0.1337124891864081, -0.013543830243316188, -0.3081900112727629, 0.3393638843575086, -0.15604895638172792, 0.4070111155183721, 0.018116641813836747, 0.38224745986352043, 0.10989174405458503, 0.1211076596429521, -0.14386123720941962, -0.07322607128235319, 0.12993325672637418, -0.11016519764689074, 0.1839486412267331, -0.07958222366599528, -0.28729176922774863, -0.3829832378121157, -0.30088845880587733, -0.04465427566574796, -0.6039407752502846, 0.3171286985816846, -0.4330269456230476], [-0.20611565536853949, -0.011221823123340562, 0.5078175323874227, -0.300589171001131, -0.03183379608433197, -0.16435560860681114, -0.2460476624561721, -0.45209054806983745, 0.2582181132148322, -0.26843286553103274, -0.2713305323491843, -0.22999743754259036, 0.5077610905189307, 0.34108431638713715, 0.41940439627951565, 0.002087102144360894, 0.38605778555620945, 0.4485652300842145, -0.29871181512747624, -0.3834728631007694, 0.4092168508426949, 0.2792729107962401, 0.04142197271815947, -0.06432830854799815, 0.15199796529836657], [0.20039707834241807, -0.17283581724442917, -0.17142569870604332, -0.06569789006693279, -0.22123272308715977, 0.4099544592230742, 0.1312844139862034, 0.4301145256721881, 0.3676441209481762, -0.15331326689479188, 0.35443256891010105, 0.024033386526823845, 0.4013971131043719, 0.13605896401127401, 0.31801718563939907, 0.13498309120482946, -0.40184615255365336, -0.18772019660306835, 0.4187422466721543, 0.20300600083139367, -0.3949434851091813, 0.3796905124251614, -0.11364049541455634, -0.17355285544396143, 0.349173371399269]], [[1.140626851343164, -0.6042275463633844, -0.1652550988340085]]], "biases": [[[-0.01006169732790728], [0.014184645823387418], [0.03358920965696609], [-0.0006195280436447538], [-0.026918127068926608], [0.0017312916680112401], [-0.03734262642922676], [-0.0007152702165135647], [0.0038505271053200013], [-0.00775019027327039], [-0.038295829098590924], [-0.011407671301581337], [0.019702874643884115], [0.019435206340537154], [0.00037011557951366336], [-0.003078782419916402], [0.010763637147126736], [0.04557587282357312], [0.006369855268531305], [-0.024854294927810095], [-0.009732630872943508], [0.006594880781927709], [0.008599168526672545], [0.001768735844800475], [-0.0014282234404177226]], [[0.025361274774846013], [0.019059757489306765], [-0.005995742601225213]], [[0.021821791136585094]]], "activation": "linear"}